digraph Tree {
node [shape=box, style="filled, rounded", color="black", fontname="helvetica"] ;
edge [fontname="helvetica"] ;
0 [label="umami <= 0.5\nentropy = 4.392\nsamples = 21\nvalue = [1, 1, 1, 1, 1, 1, 1, 1, 1, 1, 1, 1, 1, 1\n1, 1, 1, 1, 1, 1, 1]\nclass = pizza margherita", fillcolor="#ffffff"] ;
1 [label="cuisineItalian <= 0.5\nentropy = 3.322\nsamples = 10\nvalue = [0, 1, 0, 0, 0, 1, 0, 1, 0, 0, 1, 1, 0, 1\n0, 1, 0, 1, 1, 0, 1]\nclass = carbonara", fillcolor="#ffffff"] ;
0 -> 1 [labeldistance=2.5, labelangle=45, headlabel="True"] ;
2 [label="tomato <= 0.5\nentropy = 2.322\nsamples = 5\nvalue = [0, 0, 0, 0, 0, 1, 0, 1, 0, 0, 1, 0, 0, 0\n0, 0, 0, 1, 1, 0, 0]\nclass = salmon fillet", fillcolor="#ffffff"] ;
1 -> 2 ;
3 [label="mostlyMeet <= 0.5\nentropy = 1.585\nsamples = 3\nvalue = [0, 0, 0, 0, 0, 1, 0, 0, 0, 0, 0, 0, 0, 0\n0, 0, 0, 1, 1, 0, 0]\nclass = salmon fillet", fillcolor="#ffffff"] ;
2 -> 3 ;
4 [label="fish <= 0.5\nentropy = 1.0\nsamples = 2\nvalue = [0, 0, 0, 0, 0, 1, 0, 0, 0, 0, 0, 0, 0, 0\n0, 0, 0, 1, 0, 0, 0]\nclass = salmon fillet", fillcolor="#ffffff"] ;
3 -> 4 ;
5 [label="entropy = 0.0\nsamples = 1\nvalue = [0, 0, 0, 0, 0, 0, 0, 0, 0, 0, 0, 0, 0, 0\n0, 0, 0, 1, 0, 0, 0]\nclass = lamb chops", fillcolor="#e539b7"] ;
4 -> 5 ;
6 [label="entropy = 0.0\nsamples = 1\nvalue = [0, 0, 0, 0, 0, 1, 0, 0, 0, 0, 0, 0, 0, 0\n0, 0, 0, 0, 0, 0, 0]\nclass = salmon fillet", fillcolor="#56e539"] ;
4 -> 6 ;
7 [label="entropy = 0.0\nsamples = 1\nvalue = [0, 0, 0, 0, 0, 0, 0, 0, 0, 0, 0, 0, 0, 0\n0, 0, 0, 0, 1, 0, 0]\nclass = spaghetti bolognese", fillcolor="#e53986"] ;
3 -> 7 ;
8 [label="pasta <= 0.5\nentropy = 1.0\nsamples = 2\nvalue = [0, 0, 0, 0, 0, 0, 0, 1, 0, 0, 1, 0, 0, 0\n0, 0, 0, 0, 0, 0, 0]\nclass = chicken curry", fillcolor="#ffffff"] ;
2 -> 8 ;
9 [label="entropy = 0.0\nsamples = 1\nvalue = [0, 0, 0, 0, 0, 0, 0, 1, 0, 0, 0, 0, 0, 0\n0, 0, 0, 0, 0, 0, 0]\nclass = chicken curry", fillcolor="#39e57e"] ;
8 -> 9 ;
10 [label="entropy = 0.0\nsamples = 1\nvalue = [0, 0, 0, 0, 0, 0, 0, 0, 0, 0, 1, 0, 0, 0\n0, 0, 0, 0, 0, 0, 0]\nclass = grilled cheese sandwich", fillcolor="#39b7e5"] ;
8 -> 10 ;
11 [label="pasta <= 0.5\nentropy = 2.322\nsamples = 5\nvalue = [0, 1, 0, 0, 0, 0, 0, 0, 0, 0, 0, 1, 0, 1\n0, 1, 0, 0, 0, 0, 1]\nclass = carbonara", fillcolor="#ffffff"] ;
1 -> 11 ;
12 [label="vegetarian <= 0.5\nentropy = 1.585\nsamples = 3\nvalue = [0, 0, 0, 0, 0, 0, 0, 0, 0, 0, 0, 1, 0, 1\n0, 1, 0, 0, 0, 0, 0]\nclass = hamburger", fillcolor="#ffffff"] ;
11 -> 12 ;
13 [label="cheese <= 0.5\nentropy = 1.0\nsamples = 2\nvalue = [0, 0, 0, 0, 0, 0, 0, 0, 0, 0, 0, 0, 0, 1\n0, 1, 0, 0, 0, 0, 0]\nclass = taco salad", fillcolor="#ffffff"] ;
12 -> 13 ;
14 [label="entropy = 0.0\nsamples = 1\nvalue = [0, 0, 0, 0, 0, 0, 0, 0, 0, 0, 0, 0, 0, 0\n0, 1, 0, 0, 0, 0, 0]\nclass = vegetable lasagna", fillcolor="#b139e5"] ;
13 -> 14 ;
15 [label="entropy = 0.0\nsamples = 1\nvalue = [0, 0, 0, 0, 0, 0, 0, 0, 0, 0, 0, 0, 0, 1\n0, 0, 0, 0, 0, 0, 0]\nclass = taco salad", fillcolor="#4d39e5"] ;
13 -> 15 ;
16 [label="entropy = 0.0\nsamples = 1\nvalue = [0, 0, 0, 0, 0, 0, 0, 0, 0, 0, 0, 1, 0, 0\n0, 0, 0, 0, 0, 0, 0]\nclass = hamburger", fillcolor="#3986e5"] ;
12 -> 16 ;
17 [label="cheese <= 0.5\nentropy = 1.0\nsamples = 2\nvalue = [0, 1, 0, 0, 0, 0, 0, 0, 0, 0, 0, 0, 0, 0\n0, 0, 0, 0, 0, 0, 1]\nclass = carbonara", fillcolor="#ffffff"] ;
11 -> 17 ;
18 [label="entropy = 0.0\nsamples = 1\nvalue = [0, 0, 0, 0, 0, 0, 0, 0, 0, 0, 0, 0, 0, 0\n0, 0, 0, 0, 0, 0, 1]\nclass = kebab", fillcolor="#e54d39"] ;
17 -> 18 ;
19 [label="entropy = 0.0\nsamples = 1\nvalue = [0, 1, 0, 0, 0, 0, 0, 0, 0, 0, 0, 0, 0, 0\n0, 0, 0, 0, 0, 0, 0]\nclass = carbonara", fillcolor="#e5b139"] ;
17 -> 19 ;
20 [label="mostlyMeet <= 0.5\nentropy = 3.459\nsamples = 11\nvalue = [1, 0, 1, 1, 1, 0, 1, 0, 1, 1, 0, 0, 1, 0\n1, 0, 1, 0, 0, 1, 0]\nclass = pizza margherita", fillcolor="#ffffff"] ;
0 -> 20 [labeldistance=2.5, labelangle=-45, headlabel="False"] ;
21 [label="tomato <= 0.5\nentropy = 2.807\nsamples = 7\nvalue = [0, 0, 1, 0, 1, 0, 1, 0, 1, 0, 0, 0, 0, 0\n1, 0, 1, 0, 0, 1, 0]\nclass = lasagne", fillcolor="#ffffff"] ;
20 -> 21 ;
22 [label="cuisineIndian <= 0.5\nentropy = 2.322\nsamples = 5\nvalue = [0, 0, 1, 0, 1, 0, 1, 0, 1, 0, 0, 0, 0, 0\n1, 0, 0, 0, 0, 0, 0]\nclass = lasagne", fillcolor="#ffffff"] ;
21 -> 22 ;
23 [label="cuisineMexican <= 0.5\nentropy = 1.585\nsamples = 3\nvalue = [0, 0, 0, 0, 1, 0, 1, 0, 0, 0, 0, 0, 0, 0\n1, 0, 0, 0, 0, 0, 0]\nclass = steak", fillcolor="#ffffff"] ;
22 -> 23 ;
24 [label="fish <= 0.5\nentropy = 1.0\nsamples = 2\nvalue = [0, 0, 0, 0, 0, 0, 1, 0, 0, 0, 0, 0, 0, 0\n1, 0, 0, 0, 0, 0, 0]\nclass = fish and chips", fillcolor="#ffffff"] ;
23 -> 24 ;
25 [label="entropy = 0.0\nsamples = 1\nvalue = [0, 0, 0, 0, 0, 0, 1, 0, 0, 0, 0, 0, 0, 0\n0, 0, 0, 0, 0, 0, 0]\nclass = fish and chips", fillcolor="#39e54d"] ;
24 -> 25 ;
26 [label="entropy = 0.0\nsamples = 1\nvalue = [0, 0, 0, 0, 0, 0, 0, 0, 0, 0, 0, 0, 0, 0\n1, 0, 0, 0, 0, 0, 0]\nclass = chicken teriyaki", fillcolor="#7e39e5"] ;
24 -> 26 ;
27 [label="entropy = 0.0\nsamples = 1\nvalue = [0, 0, 0, 0, 1, 0, 0, 0, 0, 0, 0, 0, 0, 0\n0, 0, 0, 0, 0, 0, 0]\nclass = steak", fillcolor="#86e539"] ;
23 -> 27 ;
28 [label="entropy = 1.0\nsamples = 2\nvalue = [0, 0, 1, 0, 0, 0, 0, 0, 1, 0, 0, 0, 0, 0\n0, 0, 0, 0, 0, 0, 0]\nclass = lasagne", fillcolor="#ffffff"] ;
22 -> 28 ;
29 [label="cuisineMexican <= 0.5\nentropy = 1.0\nsamples = 2\nvalue = [0, 0, 0, 0, 0, 0, 0, 0, 0, 0, 0, 0, 0, 0\n0, 0, 1, 0, 0, 1, 0]\nclass = shrimp scampi", fillcolor="#ffffff"] ;
21 -> 29 ;
30 [label="entropy = 0.0\nsamples = 1\nvalue = [0, 0, 0, 0, 0, 0, 0, 0, 0, 0, 0, 0, 0, 0\n0, 0, 1, 0, 0, 0, 0]\nclass = shrimp scampi", fillcolor="#e239e5"] ;
29 -> 30 ;
31 [label="entropy = 0.0\nsamples = 1\nvalue = [0, 0, 0, 0, 0, 0, 0, 0, 0, 0, 0, 0, 0, 0\n0, 0, 0, 0, 0, 1, 0]\nclass = pork ribs", fillcolor="#e53956"] ;
29 -> 31 ;
32 [label="sweet <= 0.5\nentropy = 2.0\nsamples = 4\nvalue = [1, 0, 0, 1, 0, 0, 0, 0, 0, 1, 0, 0, 1, 0\n0, 0, 0, 0, 0, 0, 0]\nclass = pizza margherita", fillcolor="#ffffff"] ;
20 -> 32 ;
33 [label="entropy = 1.0\nsamples = 2\nvalue = [1, 0, 0, 0, 0, 0, 0, 0, 0, 1, 0, 0, 0, 0\n0, 0, 0, 0, 0, 0, 0]\nclass = pizza margherita", fillcolor="#ffffff"] ;
32 -> 33 ;
34 [label="cuisineJapanese <= 0.5\nentropy = 1.0\nsamples = 2\nvalue = [0, 0, 0, 1, 0, 0, 0, 0, 0, 0, 0, 0, 1, 0\n0, 0, 0, 0, 0, 0, 0]\nclass = risotto", fillcolor="#ffffff"] ;
32 -> 34 ;
35 [label="entropy = 0.0\nsamples = 1\nvalue = [0, 0, 0, 0, 0, 0, 0, 0, 0, 0, 0, 0, 1, 0\n0, 0, 0, 0, 0, 0, 0]\nclass = fajitas", fillcolor="#3956e5"] ;
34 -> 35 ;
36 [label="entropy = 0.0\nsamples = 1\nvalue = [0, 0, 0, 1, 0, 0, 0, 0, 0, 0, 0, 0, 0, 0\n0, 0, 0, 0, 0, 0, 0]\nclass = risotto", fillcolor="#b7e539"] ;
34 -> 36 ;
}