digraph Tree {
node [shape=box, style="filled, rounded", color="black", fontname="helvetica"] ;
edge [fontname="helvetica"] ;
0 [label="tomato <= 0.5\nentropy = 4.322\nsamples = 20\nvalue = [1, 1, 1, 1, 1, 1, 1, 1, 1, 1, 1, 1, 1, 1\n1, 1, 1, 1, 1, 1]\nclass = pizza margherita", fillcolor="#ffffff"] ;
1 [label="mostlyMeet <= 0.5\nentropy = 3.907\nsamples = 15\nvalue = [1, 1, 1, 1, 1, 1, 1, 0, 1, 1, 0, 1, 1, 1\n1, 0, 1, 1, 0, 0]\nclass = pizza margherita", fillcolor="#ffffff"] ;
0 -> 1 [labeldistance=2.5, labelangle=45, headlabel="True"] ;
2 [label="cheese <= 0.5\nentropy = 3.322\nsamples = 10\nvalue = [0, 1, 1, 0, 1, 1, 1, 0, 1, 0, 0, 0, 1, 1\n1, 0, 1, 0, 0, 0]\nclass = carbonara", fillcolor="#ffffff"] ;
1 -> 2 ;
3 [label="spicy <= 0.5\nentropy = 2.807\nsamples = 7\nvalue = [0, 0, 1, 0, 1, 1, 0, 0, 1, 0, 0, 0, 0, 1\n1, 0, 1, 0, 0, 0]\nclass = lasagne", fillcolor="#ffffff"] ;
2 -> 3 ;
4 [label="fish <= 0.5\nentropy = 2.0\nsamples = 4\nvalue = [0, 0, 0, 0, 0, 1, 0, 0, 0, 0, 0, 0, 0, 1\n1, 0, 1, 0, 0, 0]\nclass = salmon fillet", fillcolor="#ffffff"] ;
3 -> 4 ;
5 [label="bitter <= 0.5\nentropy = 1.0\nsamples = 2\nvalue = [0, 0, 0, 0, 0, 0, 0, 0, 0, 0, 0, 0, 0, 0\n1, 0, 1, 0, 0, 0]\nclass = chicken teriyaki", fillcolor="#ffffff"] ;
4 -> 5 ;
6 [label="entropy = 0.0\nsamples = 1\nvalue = [0, 0, 0, 0, 0, 0, 0, 0, 0, 0, 0, 0, 0, 0\n1, 0, 0, 0, 0, 0]\nclass = chicken teriyaki", fillcolor="#a339e5"] ;
5 -> 6 ;
7 [label="entropy = 0.0\nsamples = 1\nvalue = [0, 0, 0, 0, 0, 0, 0, 0, 0, 0, 0, 0, 0, 0\n0, 0, 1, 0, 0, 0]\nclass = shrimp scampi", fillcolor="#e539c0"] ;
5 -> 7 ;
8 [label="entropy = 1.0\nsamples = 2\nvalue = [0, 0, 0, 0, 0, 1, 0, 0, 0, 0, 0, 0, 0, 1\n0, 0, 0, 0, 0, 0]\nclass = salmon fillet", fillcolor="#ffffff"] ;
4 -> 8 ;
9 [label="cuisineMexican <= 0.5\nentropy = 1.585\nsamples = 3\nvalue = [0, 0, 1, 0, 1, 0, 0, 0, 1, 0, 0, 0, 0, 0\n0, 0, 0, 0, 0, 0]\nclass = lasagne", fillcolor="#ffffff"] ;
3 -> 9 ;
10 [label="entropy = 1.0\nsamples = 2\nvalue = [0, 0, 1, 0, 0, 0, 0, 0, 1, 0, 0, 0, 0, 0\n0, 0, 0, 0, 0, 0]\nclass = lasagne", fillcolor="#ffffff"] ;
9 -> 10 ;
11 [label="entropy = 0.0\nsamples = 1\nvalue = [0, 0, 0, 0, 1, 0, 0, 0, 0, 0, 0, 0, 0, 0\n0, 0, 0, 0, 0, 0]\nclass = steak", fillcolor="#7be539"] ;
9 -> 11 ;
12 [label="cuisineItalian <= 0.5\nentropy = 1.585\nsamples = 3\nvalue = [0, 1, 0, 0, 0, 0, 1, 0, 0, 0, 0, 0, 1, 0\n0, 0, 0, 0, 0, 0]\nclass = carbonara", fillcolor="#ffffff"] ;
2 -> 12 ;
13 [label="entropy = 0.0\nsamples = 1\nvalue = [0, 0, 0, 0, 0, 0, 1, 0, 0, 0, 0, 0, 0, 0\n0, 0, 0, 0, 0, 0]\nclass = fish and chips", fillcolor="#39e55e"] ;
12 -> 13 ;
14 [label="pasta <= 0.5\nentropy = 1.0\nsamples = 2\nvalue = [0, 1, 0, 0, 0, 0, 0, 0, 0, 0, 0, 0, 1, 0\n0, 0, 0, 0, 0, 0]\nclass = carbonara", fillcolor="#ffffff"] ;
12 -> 14 ;
15 [label="entropy = 0.0\nsamples = 1\nvalue = [0, 0, 0, 0, 0, 0, 0, 0, 0, 0, 0, 0, 1, 0\n0, 0, 0, 0, 0, 0]\nclass = fajitas", fillcolor="#3c39e5"] ;
14 -> 15 ;
16 [label="entropy = 0.0\nsamples = 1\nvalue = [0, 1, 0, 0, 0, 0, 0, 0, 0, 0, 0, 0, 0, 0\n0, 0, 0, 0, 0, 0]\nclass = carbonara", fillcolor="#e5b439"] ;
14 -> 16 ;
17 [label="sweet <= 0.5\nentropy = 2.322\nsamples = 5\nvalue = [1, 0, 0, 1, 0, 0, 0, 0, 0, 1, 0, 1, 0, 0\n0, 0, 0, 1, 0, 0]\nclass = pizza margherita", fillcolor="#ffffff"] ;
1 -> 17 ;
18 [label="entropy = 1.585\nsamples = 3\nvalue = [1, 0, 0, 0, 0, 0, 0, 0, 0, 1, 0, 0, 0, 0\n0, 0, 0, 1, 0, 0]\nclass = pizza margherita", fillcolor="#ffffff"] ;
17 -> 18 ;
19 [label="spicy <= 0.5\nentropy = 1.0\nsamples = 2\nvalue = [0, 0, 0, 1, 0, 0, 0, 0, 0, 0, 0, 1, 0, 0\n0, 0, 0, 0, 0, 0]\nclass = risotto", fillcolor="#ffffff"] ;
17 -> 19 ;
20 [label="entropy = 0.0\nsamples = 1\nvalue = [0, 0, 0, 1, 0, 0, 0, 0, 0, 0, 0, 0, 0, 0\n0, 0, 0, 0, 0, 0]\nclass = risotto", fillcolor="#aee539"] ;
19 -> 20 ;
21 [label="entropy = 0.0\nsamples = 1\nvalue = [0, 0, 0, 0, 0, 0, 0, 0, 0, 0, 0, 1, 0, 0\n0, 0, 0, 0, 0, 0]\nclass = hamburger", fillcolor="#396ae5"] ;
19 -> 21 ;
22 [label="pasta <= 0.5\nentropy = 2.322\nsamples = 5\nvalue = [0, 0, 0, 0, 0, 0, 0, 1, 0, 0, 1, 0, 0, 0\n0, 1, 0, 0, 1, 1]\nclass = chicken curry", fillcolor="#ffffff"] ;
0 -> 22 [labeldistance=2.5, labelangle=-45, headlabel="False"] ;
23 [label="cuisineMexican <= 0.5\nentropy = 1.585\nsamples = 3\nvalue = [0, 0, 0, 0, 0, 0, 0, 1, 0, 0, 0, 0, 0, 0\n0, 1, 0, 0, 1, 0]\nclass = chicken curry", fillcolor="#ffffff"] ;
22 -> 23 ;
24 [label="cuisineAmerican <= 0.5\nentropy = 1.0\nsamples = 2\nvalue = [0, 0, 0, 0, 0, 0, 0, 1, 0, 0, 0, 0, 0, 0\n0, 1, 0, 0, 0, 0]\nclass = chicken curry", fillcolor="#ffffff"] ;
23 -> 24 ;
25 [label="entropy = 0.0\nsamples = 1\nvalue = [0, 0, 0, 0, 0, 0, 0, 0, 0, 0, 0, 0, 0, 0\n0, 1, 0, 0, 0, 0]\nclass = vegetable lasagna", fillcolor="#d739e5"] ;
24 -> 25 ;
26 [label="entropy = 0.0\nsamples = 1\nvalue = [0, 0, 0, 0, 0, 0, 0, 1, 0, 0, 0, 0, 0, 0\n0, 0, 0, 0, 0, 0]\nclass = chicken curry", fillcolor="#39e592"] ;
24 -> 26 ;
27 [label="entropy = 0.0\nsamples = 1\nvalue = [0, 0, 0, 0, 0, 0, 0, 0, 0, 0, 0, 0, 0, 0\n0, 0, 0, 0, 1, 0]\nclass = spaghetti bolognese", fillcolor="#e53958"] ;
23 -> 27 ;
28 [label="vegetarian <= 0.5\nentropy = 1.0\nsamples = 2\nvalue = [0, 0, 0, 0, 0, 0, 0, 0, 0, 0, 1, 0, 0, 0\n0, 0, 0, 0, 0, 1]\nclass = grilled cheese sandwich", fillcolor="#ffffff"] ;
22 -> 28 ;
29 [label="entropy = 0.0\nsamples = 1\nvalue = [0, 0, 0, 0, 0, 0, 0, 0, 0, 0, 1, 0, 0, 0\n0, 0, 0, 0, 0, 0]\nclass = grilled cheese sandwich", fillcolor="#399de5"] ;
28 -> 29 ;
30 [label="entropy = 0.0\nsamples = 1\nvalue = [0, 0, 0, 0, 0, 0, 0, 0, 0, 0, 0, 0, 0, 0\n0, 0, 0, 0, 0, 1]\nclass = pork ribs", fillcolor="#e54d39"] ;
28 -> 30 ;
}